%YAML:1.0
my_svm: !!opencv-ml-svm
   svm_type: C_SVC
   kernel: { type:LINEAR }
   C: 1.0000000000000001e-001
   term_criteria: { epsilon:9.9999997473787516e-006, iterations:100 }
   var_all: 7
   var_count: 7
   class_count: 2
   class_labels: !!opencv-matrix
      rows: 1
      cols: 2
      dt: i
      data: [ 0, 1 ]
   sv_total: 6
   support_vectors:
      - [ 9.79319632e-001, 4., 4.33542505e-002, 1.41176470e-002,
          -3.76412781e+002, 1.05882352e-002, 3.35410190e+000 ]
      - [ -6.02185726e-001, 39., 2.42514968e-001, 1.86298080e-002,
          -1.18255867e+005, 5.40865399e-003, 4.70678711e+000 ]
      - [ 0., 3., 1.68269239e-002, 6.41574012e-003, 0., 6.41574012e-003,
          0. ]
      - [ 4.15964222e+000, 3., 2.10336540e-002, 7.27117201e-003,
          -5.89608669e+000, 6.13059616e-003, 3.09120607e+000 ]
      - [ 4.72089380e-001, 103., 5.69711566e-001, 8.98203626e-003,
          -3.55611719e+004, 6.68150513e-003, 2.84252214e+000 ]
      - [ -7.95723557e-001, 3., 6.74157292e-002, 1.16686113e-002, 0.,
          1.08907036e-002, 9.42809045e-001 ]
   decision_functions:
      -
         sv_count: 6
         rho: -1.4449446312775909e+000
         alpha: [ 1.4567299287538194e-005, 3.0305946334136084e-008,
             2.5413944867473324e-007, -1.4567299287538194e-005,
             -2.5413944867473324e-007, -3.0305946334136084e-008 ]
         index: [ 0, 1, 2, 3, 4, 5 ]
