%YAML:1.0
my_svm: !!opencv-ml-svm
   svm_type: C_SVC
   kernel: { type:LINEAR }
   C: 1.0000000000000001e-001
   term_criteria: { epsilon:9.9999997473787516e-006, iterations:100 }
   var_all: 7
   var_count: 7
   class_count: 2
   class_labels: !!opencv-matrix
      rows: 1
      cols: 2
      dt: i
      data: [ 0, 1 ]
   sv_total: 12
   support_vectors:
      - [ 7.52381992e+000, 2., 0., 0., 0., 1.17545873e-002,
          9.50000000e+000 ]
      - [ 2.52011242e+001, 2., 0., 0., 0., 4.27350448e-003, 1. ]
      - [ 3.81572266e+001, 2., 0., 0., 0., 6.84345607e-003, 8. ]
      - [ 1.46763926e+001, 9., 0., 0., -1.12036230e+004, 8.79194029e-003,
          9.99011898e+000 ]
      - [ -3.46951523e+001, 2., 0., 0., 0., 5.12820529e-003, 1. ]
      - [ -4.06494713e+000, 12., 0., 0., -1.69109219e+004,
          3.27915605e-003, 2.90114927e+000 ]
      - [ -1.90915227e+000, 2., 0., 0., 0., 8.32177512e-003, 3. ]
      - [ 1.88860874e+001, 3., 0., 0., -5.60694361e+000, 1.56695154e-002,
          9.42809045e-001 ]
      - [ 4.60814029e-001, 39., 0., 0., -3.68675898e+004,
          8.83364584e-003, 7.70597076e+000 ]
      - [ 1.31906109e+001, 2., 0., 0., 0., 1.00100096e-002, 7. ]
      - [ 6.18720829e-001, 130., 0., 0., -5.29553359e+004,
          5.88274002e-003, 2.15214229e+000 ]
      - [ -2.39624882e+001, 2., 0., 0., 0., 5.98290609e-003, 10. ]
   decision_functions:
      -
         sv_count: 12
         rho: -7.3729585489830185e-001
         alpha: [ 1.5240304671215239e-002, 1.8504772811712583e-003,
             1.3060763573396476e-002, 3.4954373020576508e-008,
             1.9691897128924114e-002, 4.1086895504978391e-006,
             -1.5240304671215239e-002, -1.2390685651273069e-002,
             -9.4326191070005488e-009, -7.3012164468429491e-003,
             -2.3993630460008510e-009, -1.4915367697317205e-002 ]
         index: [ 0, 1, 2, 3, 4, 5, 6, 7, 8, 9, 10, 11 ]
