%YAML:1.0
my_svm: !!opencv-ml-svm
   svm_type: C_SVC
   kernel: { type:LINEAR }
   C: 5.0000000000000000e-001
   term_criteria: { epsilon:9.9999997473787516e-006, iterations:100 }
   var_all: 7
   var_count: 7
   class_count: 2
   class_labels: !!opencv-matrix
      rows: 1
      cols: 2
      dt: i
      data: [ 0, 1 ]
   sv_total: 14
   support_vectors:
      - [ 7.59464312e+000, 4., 2.79520825e-002, 1.33333337e-002,
          -2.08026199e+002, 1.05882352e-002, 2.50000000e+000 ]
      - [ 8.24342847e-001, 9., 1.22012578e-001, 1.06856637e-002,
          -3.24648895e+001, 1.01909572e-002, 6.84934914e-001 ]
      - [ -9.37209225e+000, 5., 2.73738243e-002, 1.56250000e-002,
          -1.46641037e+002, 9.13461577e-003, 7.78203058e+000 ]
      - [ -2.65650520e+001, 3., 1.71086397e-002, 1.26201920e-002,
          -1.28000002e+001, 8.41346197e-003, 4.96655464e+000 ]
      - [ 2.43410892e+001, 3., 1.32591957e-002, 2.22355761e-002,
          -1.79661179e+002, 1.08173080e-002, 1.34907379e+001 ]
      - [ -1.39124937e+001, 3., 3.84944379e-002, 2.82451920e-002, 0.,
          2.20352560e-002, 7.31816626e+000 ]
      - [ -8.36588573e+000, 3., 1.11206155e-002, 8.06776900e-003, 0.,
          5.51297562e-003, 4.49691248e+000 ]
      - [ 4.85545814e-001, 6., 4.74956818e-002, 1.41176470e-002,
          -1.07781687e+001, 1.19607840e-002, 1.34370959e+000 ]
      - [ 7.69024670e-001, 41., 2.13942304e-001, 8.55431985e-003,
          -6.88782593e+002, 6.17580162e-003, 2.01274943e+000 ]
      - [ 0., 4., 7.06260055e-002, 8.16802774e-003, 0., 7.58459745e-003,
          5.00000000e-001 ]
      - [ 9.85636592e-001, 112., 4.92022961e-001, 1.05601465e-002,
          -9.75531055e+003, 5.91138657e-003, 1.97811687e+000 ]
      - [ 5.52753973e+000, 4., 5.82932681e-002, 1.28314802e-002,
          -4.25814438e+001, 1.17621897e-002, 3.77491713e+000 ]
      - [ -4.62052703e-001, 9., 7.51201957e-002, 6.84345607e-003,
          -5.79345798e+000, 6.79593207e-003, 3.14269692e-001 ]
      - [ 9.93854702e-002, 73., 5.13221145e-001, 1.02651836e-002,
          -2.58818066e+004, 7.09539838e-003, 3.06476045e+000 ]
   decision_functions:
      -
         sv_count: 14
         rho: 9.7090993546030380e-001
         alpha: [ 1.8970880146338021e-003, 1.2819609434288623e-002,
             9.3061604426302773e-005, 1.0507411182010878e-003,
             9.6978002218318351e-004, 1.3341389734558995e-006,
             1.8521797162857122e-005, -5.1331196201295980e-005,
             -2.3917574677786088e-007, -1.0879066952683618e-003,
             -6.2090109242013046e-007, -1.5433683226973513e-002,
             -2.6295754485492569e-004, -1.3397389732019003e-005 ]
         index: [ 0, 1, 2, 3, 4, 5, 6, 7, 8, 9, 10, 11, 12, 13 ]
