%YAML:1.0
my_svm: !!opencv-ml-svm
   svm_type: C_SVC
   kernel: { type:LINEAR }
   C: 5.0000000000000000e-001
   term_criteria: { epsilon:9.9999997473787516e-006, iterations:100 }
   var_all: 7
   var_count: 7
   class_count: 2
   class_labels: !!opencv-matrix
      rows: 1
      cols: 2
      dt: i
      data: [ 0, 1 ]
   sv_total: 8
   support_vectors:
      - [ -6.84277296e+000, 2., 0., 0., 0., 1.13240415e-002, 7. ]
      - [ 0., 3., 0., 0., 0., 1.28314795e-003, 0. ]
      - [ 2.41455421e+001, 2., 0., 0., 0., 4.05844161e-003, 7. ]
      - [ -2.32153058e+000, 8., 0., 0., -3.92571747e+002,
          3.30128223e-002, 1.05111551e+001 ]
      - [ -3.09405804e+000, 2., 0., 0., 0., 8.54700897e-003, 5. ]
      - [ -7.76516676e+000, 3., 0., 0., -2.32048678e+000,
          8.31107143e-003, 1.69967318e+000 ]
      - [ 1.03224468e+000, 23., 0., 0., -1.61989120e+002,
          7.61969527e-003, 5.76804340e-001 ]
      - [ 9.73378301e-001, 87., 0., 0., -4.42268242e+004,
          7.24659069e-003, 4.00102377e+000 ]
   decision_functions:
      -
         sv_count: 8
         rho: -9.0337544817722648e-001
         alpha: [ 1.2081691412062320e-001, 9.6754021270382295e-002,
             3.3612121557591041e-003, 3.8875254797071557e-003,
             -2.0762170790728890e-001, -1.3372558583773673e-002,
             -3.8055372241242113e-003, -1.9869311284980149e-005 ]
         index: [ 0, 1, 2, 3, 4, 5, 6, 7 ]
